{
  "layers": [
    13,
    24,
    12,
    2
  ],
  "learningRate": 0.008,
  "weights": [
    [
      [
        0.5759545405021687,
        0.15461756235575458,
        0.06165082588951871,
        -0.30046595665009934,
        0.2826208413721035,
        -0.041984053334162066,
        0.3052992625297745,
        -0.09935297891339605,
        -0.024385220148509686,
        -0.20273659240772873,
        -0.7811421539244573,
        -0.06405940386980422,
        -0.1909637218150403
      ],
      [
        -0.7759910259269064,
        -0.2698068103993716,
        -0.4605085379995585,
        0.15492818995692462,
        -0.3039444009214845,
        0.08027667275823784,
        -0.45727906017368236,
        0.42583653049508935,
        -0.35999319433950194,
        0.16957376865396234,
        1.0718376862971966,
        0.20002076066145738,
        0.2550375798785421
      ],
      [
        -0.19288429846793292,
        -0.15039579114557128,
        -0.35129257564612465,
        -0.17507440138030517,
        -0.24993333631209885,
        -0.11984090767976607,
        -0.026970688003175,
        -0.06333892400967196,
        -0.02565239024517043,
        -0.13975377443141376,
        0.17863807134188822,
        0.035936958433239075,
        -0.18980934869048102
      ],
      [
        0.3583201658300604,
        0.1865076615833549,
        0.31189758148049807,
        0.06812767732690869,
        -0.04291815659463245,
        -0.19577702718321918,
        0.14606939015092343,
        -0.34927793707081733,
        -0.0022634814564592197,
        0.0279165826852643,
        -0.6070031867320919,
        0.09292160143626634,
        0.18584358694127404
      ],
      [
        -0.8358502519121663,
        -0.23781835019558192,
        -0.17352940736047004,
        0.2601343622063295,
        -0.5213032557661696,
        0.4099352446955115,
        -0.4754955127973848,
        0.3010532541085438,
        -0.17373406352230963,
        0.22073676449875362,
        1.1323400001462018,
        -0.11507751831918825,
        0.22446556352196498
      ],
      [
        0.7529271589150788,
        0.0706982290200088,
        0.3464101394898526,
        -0.25889166505160194,
        0.22203356180745723,
        -0.32965345540022034,
        0.2646308364160194,
        -0.20903062414452003,
        0.30450948120894306,
        -0.0372274378577558,
        -0.9538778695570724,
        -0.061572570261845254,
        0.008880885811503288
      ],
      [
        -0.541258307615403,
        -0.06358315853970853,
        -0.13819782913843984,
        0.19437324000464862,
        -0.38048311450121564,
        -0.150507389090983,
        -0.3951572007114109,
        0.26835139834215355,
        -0.38093401621026407,
        0.11049470351038278,
        0.6058809113666045,
        0.0005474784177438452,
        0.06375760761625895
      ],
      [
        0.4786479364651221,
        0.15231575134676903,
        0.2738114654639756,
        -0.038173211520621475,
        0.13664600822175813,
        -0.03571177360381261,
        0.4167563524494837,
        -0.45255731367677055,
        0.12337918039102817,
        -0.2858798454804941,
        -0.3988574465696598,
        0.012989391175225911,
        0.07133272009551166
      ],
      [
        0.3294505088372849,
        0.18053487711579164,
        0.23280039584097212,
        -0.018013468977441334,
        -0.06510891622301693,
        -0.16045768026899584,
        -0.07736279555168123,
        -0.3409232494384963,
        0.30288985367767024,
        0.11142452177984336,
        -0.10463936476734308,
        0.019230426724060726,
        0.19383262275832663
      ],
      [
        0.18172121657135315,
        -0.039902469837022926,
        -0.12678986158007913,
        0.030067219741091188,
        0.061389143908004984,
        0.016340622486469693,
        0.1152379757253445,
        -0.23615854825639646,
        0.11187749749243166,
        -0.03363051669206145,
        -0.02498353382917229,
        -0.05530428006615194,
        -0.05348027450044296
      ],
      [
        0.10912246545235159,
        0.07922239981197765,
        0.13821770406494305,
        -0.24677590468619898,
        0.09294902027227489,
        0.0018218169151347193,
        0.11646978647580113,
        -0.2279813181185549,
        0.12624429932228728,
        0.05977713661161702,
        -0.11587180119520085,
        -0.12611187130632495,
        0.07537339733043091
      ],
      [
        -0.01034727334683621,
        0.0633403901216042,
        -0.018498505154081205,
        -0.14295081783696462,
        -0.2609570387924438,
        0.11739080497453012,
        0.033921501171978764,
        0.11464803357462326,
        0.10642020913483766,
        -0.20883992877516688,
        0.0200048172507621,
        -0.052191319380108,
        0.18172455111068744
      ],
      [
        -0.38576081547018565,
        -0.16814936128682648,
        -0.25590453398081325,
        -0.1105941604281817,
        0.02879249661871903,
        0.14734169008214715,
        -0.03869917955943112,
        0.10462300146001419,
        0.15836609740120725,
        0.0911351193146158,
        0.4108831481280254,
        -0.13553397113939525,
        -0.08827074991459066
      ],
      [
        0.08023544279141652,
        -0.040772570026729245,
        0.34179382928822943,
        0.1325160330892468,
        0.23734749295649168,
        0.004191082082193595,
        0.2079149602014895,
        0.015735583504545975,
        0.10585108315736111,
        -0.19998084544251438,
        -0.17951764876106385,
        0.22474185571461922,
        -0.14853442090092625
      ],
      [
        0.31884862697831157,
        0.031645808673172605,
        0.03254782321585597,
        -0.06879846305388046,
        0.33199212620115576,
        -0.055298060175504996,
        0.2729229800384743,
        -0.004134402051051762,
        -0.12240389134874897,
        0.16766649549910695,
        -0.36688838160759674,
        -0.21909072205358882,
        -0.2697530565132846
      ],
      [
        0.14016612300790404,
        0.03604964269297859,
        0.12556649923137778,
        -0.22376219814237794,
        -0.02455658534417434,
        -0.1422824988350944,
        0.051468092502980296,
        -0.09896820826952317,
        -0.07185228048532875,
        0.06939995414564477,
        -0.23492615614848228,
        0.06946668941516912,
        0.08619825868527407
      ],
      [
        0.28262305415004557,
        -0.07459046095467073,
        0.20141684707222685,
        -0.06495037015180896,
        0.11144901460219994,
        -0.2538881678714549,
        0.24925169791029905,
        -0.1500609732665295,
        0.06561130802031123,
        0.0415020198249722,
        -0.5865279869814184,
        0.046743020577255705,
        0.05398460966303239
      ],
      [
        0.21023939487892185,
        -0.19050302302816205,
        -0.06111312685612883,
        -0.20087745924557837,
        0.06762616312508525,
        -0.14582111477240267,
        -0.16870710141532697,
        0.08110887942589994,
        0.04018803107142999,
        -0.014591279355950573,
        -0.1973122323674324,
        -0.05307392397476045,
        -0.20847145021763933
      ],
      [
        0.21188006040617646,
        0.12150308438537852,
        0.006383839735153392,
        0.18455809212258745,
        0.10799461477968209,
        -0.07999019624015986,
        -0.15784415977309282,
        -0.01408042886159503,
        0.25039854740869466,
        0.019723876694598196,
        -0.08955550174881625,
        -0.2029972330632705,
        0.10441551804535248
      ],
      [
        0.181018131822627,
        0.0243546433286309,
        0.0001818907972729697,
        -0.1332199061818034,
        0.20931567426983447,
        -0.10121736441974663,
        0.4644505221323677,
        -0.1374276033626221,
        0.09687478348171831,
        0.07389044115666121,
        -0.17883646189561503,
        -0.14611276769501205,
        -0.1889303960572997
      ],
      [
        -0.08749104061492398,
        0.17795121441223352,
        0.1024197636749038,
        -0.11123297857519714,
        -0.03697695508855776,
        -0.007873361491435684,
        0.0742097465948588,
        0.15920920268272137,
        0.04108044297838513,
        0.1180625328835136,
        -0.00665997562210149,
        0.12537508372702014,
        0.1483797343679525
      ],
      [
        0.10692741136384605,
        0.1565963918737372,
        0.21645506037122725,
        -0.13764536150266077,
        0.1577155641940332,
        -0.17432115417957764,
        -0.0011772132342459359,
        -0.3560593402056708,
        0.10750816783828714,
        0.08724056174510456,
        -0.07739282078864936,
        0.025051921688688063,
        -0.0023976243131153714
      ],
      [
        0.3291899556841704,
        0.11268209773976193,
        0.2633719308633888,
        -0.1357214726367853,
        0.1379481332337546,
        -0.13518130875755682,
        0.014603714433010343,
        -0.17113012962447316,
        -0.06389186014497307,
        -0.029140426722097452,
        -0.039917819172003606,
        -0.046886402171808464,
        0.13935895444950736
      ],
      [
        0.07326493046424734,
        -0.14920502109631362,
        -0.24811594167826403,
        0.12326889749296376,
        0.11316145297206816,
        0.17049033739649103,
        0.082374010391501,
        -0.18752250842943605,
        -0.010141802429914991,
        0.12036803319244668,
        0.06790621545880954,
        0.15870240478563766,
        -0.23573974761168384
      ]
    ],
    [
      [
        0.45869609474826795,
        -0.9606843425771551,
        -0.4374728518867383,
        0.35269570087073265,
        -1.0024768947953666,
        0.49358999209097887,
        -0.5435379522718362,
        0.22220715826375795,
        -0.22560369200042174,
        0.007023054708701158,
        0.10556239966295329,
        -0.24013275961101171,
        -0.6350729669234866,
        0.10169364456650307,
        0.12569206087522955,
        -0.01467611954782175,
        0.1473454157675572,
        -0.01953031603183069,
        -0.2740565746615043,
        0.03499589117793787,
        -0.07470471873583401,
        -0.23294727959342088,
        0.15500518361876164,
        -0.3594450750787206
      ],
      [
        -0.0738714069779593,
        -0.3488863801439822,
        -0.01870984675326579,
        -0.2247748614505252,
        -0.6271120843235127,
        -0.22483066650266711,
        -0.388053087318032,
        -0.23858272268281427,
        0.008687656150140803,
        -0.11950214636079873,
        -0.0133661394510457,
        -0.12984999797545102,
        -0.03810347418459433,
        -0.07667334035027404,
        -0.01255250600901924,
        -0.29270213630539743,
        0.02249041811897324,
        0.0072248342162861655,
        -0.05135679728671756,
        -0.025696861830947746,
        -0.10592492858402071,
        -0.11647357081091325,
        -0.0007806771708943141,
        -0.2767353209103667
      ],
      [
        -0.31368031887561265,
        0.08927430184721773,
        0.14537303252306413,
        -0.128794128881582,
        0.3295416796783433,
        -0.4971051964475161,
        0.175872266533826,
        -0.18889832614431748,
        -0.3519803272615251,
        -0.15523465750564988,
        0.09655071971768266,
        -0.035598937539728405,
        -0.07134476666575311,
        -0.2098758911762254,
        -0.18258158098460842,
        -0.2677016414952666,
        -0.17312455624161585,
        -0.2031390987388052,
        -0.30348744683404966,
        -0.10173173258376958,
        -0.23285870851164792,
        -0.34790199947128714,
        -0.34586619018559744,
        -0.08177454394171842
      ],
      [
        0.05513861338437951,
        -0.49234457980240004,
        0.03811048746264594,
        -0.1572714493647056,
        -0.3822623792272737,
        0.0043941309321296786,
        -0.3976814648939367,
        -0.027860873885545055,
        -0.1397333593369748,
        -0.07249662181565637,
        -0.185679008725905,
        -0.02019477044908854,
        -0.032305953918749394,
        -0.08478414174002469,
        0.07218702529513983,
        -0.2748769691078007,
        0.041646027409875205,
        -0.19293625664811204,
        -0.03911593681694589,
        -0.09291607898755301,
        -0.29121504661327524,
        -0.24044931364695737,
        -0.10766999639213137,
        -0.10165074866927619
      ],
      [
        -0.33971493693627114,
        -0.07293726726239158,
        0.01610987288831476,
        -0.06738396507685988,
        -0.2413793021044206,
        -0.4930981263102834,
        0.16575598508583883,
        -0.29419355832065436,
        -0.07798445113895891,
        -0.22600158493367004,
        -0.33285779508293134,
        -0.2670720604949072,
        0.061610140214851096,
        -0.23734784618862964,
        -0.02088765562692606,
        -0.15422216838397396,
        0.00254714016522056,
        -0.003084642344781259,
        0.013053187736849367,
        -0.05742204808832004,
        0.02101258212846796,
        -0.24411245286541905,
        -0.3194423136743935,
        -0.07985905745683347
      ],
      [
        0.06457325667444086,
        -0.574049737372385,
        -0.33543946694427634,
        0.156541633648876,
        -0.6257651553072285,
        0.14577117664234157,
        -0.37221637442562755,
        -0.0973878932862204,
        -0.0954526316249938,
        -0.11214528426459826,
        -0.07330227685660039,
        -0.17533940424763397,
        -0.20188523313384305,
        -0.30821622859547876,
        0.07237457776760009,
        0.1172377039261742,
        -0.06789868500266251,
        -0.044369334475103,
        -0.057838390132190116,
        -0.12866411336446615,
        -0.30610803746859105,
        -0.14244342136442717,
        -0.1459107124761092,
        0.036854625508465605
      ],
      [
        -0.03823536504372978,
        -0.0993851926508592,
        -0.10363698886351808,
        -0.29379748093767327,
        0.09414407039533877,
        -0.27040080453872,
        -0.08776717574156025,
        -0.31250528541831063,
        -0.32607290391686367,
        0.05435399575314664,
        -0.05871724780215533,
        -0.0163583937575046,
        -0.0924653046505733,
        -0.2735231237469951,
        -0.3221490950994416,
        -0.0347158814106288,
        -0.21360828370669577,
        -0.32890498038073823,
        -0.2590423029507419,
        0.020050113883516102,
        -0.07936330824428076,
        0.0209743945723603,
        -0.07472504801930924,
        -0.20293901642332499
      ],
      [
        -0.517885694179518,
        0.6911672559661433,
        0.3003841733429928,
        -0.3845684352526083,
        0.7966946251620755,
        -0.7596136585410838,
        0.585178509054374,
        -0.5576389115375753,
        -0.253538267338756,
        -0.056607165593276235,
        -0.030566433352974882,
        0.06746556033422708,
        0.03655393744749669,
        -0.2567075180656798,
        -0.3968105125127423,
        -0.2948076918921209,
        -0.3010548574454907,
        -0.09576855856320787,
        0.02497763876372719,
        -0.198939247753077,
        -0.019398399215321396,
        -0.4201306123390455,
        -0.14542651436354434,
        -0.19481446672657485
      ],
      [
        -0.5383296291330892,
        0.8553807519286306,
        0.03635413436454177,
        -0.4304585564601895,
        0.7547782414189206,
        -0.8132723618780382,
        0.31391155933197523,
        -0.5839028337242108,
        -0.31193664476791616,
        -0.1351690140447937,
        -0.168552467119148,
        0.016240698455837643,
        0.39962810229277484,
        -0.18761007361362486,
        -0.014545576098451014,
        -0.03000095380227309,
        -0.35419795163397033,
        0.005525672891791563,
        -0.3462061356231779,
        -0.3667793816273904,
        -0.0019425852336762478,
        -0.17572217060182557,
        -0.008365604694231324,
        0.046770221732726026
      ],
      [
        -0.18899201627221995,
        0.3004697116854226,
        0.0926065777657562,
        -0.3269632200131022,
        -0.06494720132332978,
        -0.195669233633805,
        0.19446828304960562,
        -0.32731935182213695,
        -0.4161291675838505,
        -0.041336537525855185,
        -0.23156523486421274,
        -0.04295252374215023,
        -0.04658658436851657,
        -0.2568219045597965,
        -0.33177458917828945,
        -0.06769805934700594,
        -0.4927146529071916,
        -0.04585683647601409,
        -0.06253525008759067,
        -0.21183621426763322,
        0.03370138196679908,
        -0.03300002091088236,
        -0.1659413929501793,
        -0.18301728991012414
      ],
      [
        0.017370295754599387,
        -0.28922838403773365,
        -0.25071926341390816,
        -0.2917574568519191,
        0.0900543339290312,
        -0.18162859246155721,
        -0.16360981566969862,
        -0.068816853255386,
        0.0414243463064598,
        -0.11060222975626663,
        -0.20310350068893337,
        -0.38793881035984457,
        0.10050673420179061,
        -0.2655132824809229,
        -0.16188416320471963,
        0.01694405055246734,
        -0.10705351658555795,
        -0.33139455819063746,
        -0.08438771164223101,
        -0.1897412542364588,
        -0.2363897740378842,
        -0.1422867335419632,
        -0.19473327658889195,
        -0.16717408114573198
      ],
      [
        -0.26888499325167237,
        0.2535740358778437,
        -0.2575002276652797,
        -0.17068191961991622,
        -0.04843594196571542,
        -0.14407077266019017,
        -0.08401381067040156,
        -0.19185983920118754,
        -0.2010973030345897,
        -0.041247007247908904,
        -0.12748261935435878,
        -0.24918627079627625,
        0.05036281966536828,
        -0.24486587359922765,
        -0.3200089208816204,
        -0.20409679237167533,
        -0.03305784133653511,
        -0.1465352640883395,
        -0.0613455109236423,
        -0.2925884683763483,
        -0.29986687297559533,
        -0.11749586361783541,
        -0.28242509100177815,
        -0.02728460035991709
      ]
    ],
    [
      [
        0.5604643703713266,
        0.14319159834252562,
        -0.497110424583496,
        -0.022717640906519895,
        0.054021332835758475,
        0.4360408111765017,
        0.15405332867490346,
        -0.8322007784944779,
        -0.7590987059929223,
        -0.3452587697191072,
        -0.13896136198745174,
        -0.15572758908055834
      ],
      [
        -0.5805571429770975,
        -0.19065905296161897,
        0.27363207379235954,
        -0.3915268202681866,
        0.40218456138426617,
        -0.1813678808008384,
        0.44608969598702913,
        0.7124885310013579,
        0.7720183003426405,
        0.3134736592241927,
        -0.020891993741909226,
        0.25527898215197736
      ]
    ]
  ],
  "biases": [
    [
      -0.09025364279681206,
      0.19623399257977528,
      0.026554822127728726,
      -0.09141444177510955,
      0.19429496002610624,
      -0.2072178787474943,
      0.03213325654988438,
      -0.06271379210878347,
      -0.047551959145412395,
      -0.07041494429523479,
      -0.04898537278815294,
      -0.00872244325679615,
      -0.038776889243314586,
      -0.032809220199986576,
      -0.0777426089354634,
      -0.0409950818975939,
      -0.09022669421083122,
      -0.0176581887325692,
      -0.05979481375710528,
      -0.05026243082058097,
      -0.023220145228244626,
      -0.024575264471988854,
      -0.052835613449458405,
      -0.027440536254295093
    ],
    [
      -0.34282680225885515,
      -0.3282813268410035,
      -0.10484077701320763,
      -0.39599400630092324,
      -0.2971091683548872,
      -0.33025921397837343,
      -0.2930825888127185,
      0.0019441549812598538,
      -0.1067022979879013,
      -0.26269684198130955,
      -0.29116896409516463,
      -0.23653170636000792
    ],
    [
      0.13389057751639655,
      -0.13389057751639807
    ]
  ],
  "trained": true,
  "metadata": {
    "trainedAt": "2026-02-21T01:36:07.439Z",
    "seed": 42,
    "epochs": 300,
    "numCandles": 2000,
    "learningRate": 0.008,
    "horizon": 5,
    "mode": "directional",
    "trainSamples": 1556,
    "valSamples": 389,
    "trainAccuracy": 0.5057840616966581,
    "valAccuracy": 0.5989717223650386,
    "precision": 0.6192660550458715,
    "recall": 0.6490384615384616,
    "f1": 0.6338028169014084,
    "profitFactor": 1.55,
    "featureType": "pipeline_13"
  }
}